{
  "pixel_classifier_type": "OpenCVPixelClassifier",
  "metadata": {
    "inputPadding": 0,
    "inputResolution": {
      "pixelWidth": {
        "value": 1.0,
        "unit": "px"
      },
      "pixelHeight": {
        "value": 1.0,
        "unit": "px"
      },
      "zSpacing": {
        "value": 1.0,
        "unit": "z-slice"
      },
      "timeUnit": "SECONDS",
      "timepoints": []
    },
    "inputWidth": 512,
    "inputHeight": 512,
    "inputNumChannels": 3,
    "outputType": "CLASSIFICATION",
    "outputChannels": [
      {
        "name": "Background",
        "color": -7662170
      },
      {
        "name": "Gel Band",
        "color": -6067699
      }
    ],
    "classificationLabels": {
      "0": {
        "name": "Background",
        "colorRGB": -7662170
      },
      "1": {
        "name": "Gel Band",
        "colorRGB": -6067699
      }
    }
  },
  "op": {
    "type": "data.op.channels",
    "colorTransforms": [
      {
        "channelName": "Red"
      },
      {
        "channelName": "Green"
      },
      {
        "channelName": "Blue"
      }
    ],
    "op": {
      "type": "op.core.sequential",
      "ops": [
        {
          "type": "op.core.sequential",
          "ops": [
            {
              "type": "op.core.split-merge",
              "ops": [
                {
                  "type": "op.filters.multiscale",
                  "features": [
                    "GAUSSIAN"
                  ],
                  "sigmaX": 0.5,
                  "sigmaY": 0.5
                },
                {
                  "type": "op.filters.multiscale",
                  "features": [
                    "GAUSSIAN"
                  ],
                  "sigmaX": 1.0,
                  "sigmaY": 1.0
                },
                {
                  "type": "op.filters.multiscale",
                  "features": [
                    "GAUSSIAN"
                  ],
                  "sigmaX": 2.0,
                  "sigmaY": 2.0
                },
                {
                  "type": "op.filters.multiscale",
                  "features": [
                    "GAUSSIAN"
                  ],
                  "sigmaX": 4.0,
                  "sigmaY": 4.0
                },
                {
                  "type": "op.filters.multiscale",
                  "features": [
                    "GAUSSIAN"
                  ],
                  "sigmaX": 8.0,
                  "sigmaY": 8.0
                }
              ]
            },
            {
              "type": "op.ml.feature-preprocessor",
              "preprocessor": {
                "normalizer": {
                  "offsets": [
                    0.0,
                    0.0,
                    0.0,
                    0.0,
                    0.0,
                    0.0,
                    0.0,
                    0.0,
                    0.0,
                    0.0,
                    0.0,
                    0.0,
                    0.0,
                    0.0,
                    0.0
                  ],
                  "scales": [
                    1.0,
                    1.0,
                    1.0,
                    1.0,
                    1.0,
                    1.0,
                    1.0,
                    1.0,
                    1.0,
                    1.0,
                    1.0,
                    1.0,
                    1.0,
                    1.0,
                    1.0
                  ],
                  "missingValue": 0.0
                },
                "inputLength": 15,
                "outputLength": 15
              }
            }
          ]
        },
        {
          "type": "op.ml.opencv-statmodel",
          "model": {
            "class": "ANN_MLP",
            "statmodel": {
              "opencv_ml_ann_mlp": {
                "format": 3,
                "layer_sizes": [
                  15,
                  2
                ],
                "activation_function": "SIGMOID_SYM",
                "f_param1": 1.0,
                "f_param2": 1.0,
                "min_val": -9.4999999999999996e-01,
                "max_val": 9.4999999999999996e-01,
                "min_val1": -9.7999999999999998e-01,
                "max_val1": 9.7999999999999998e-01,
                "training_params": {
                  "train_method": "RPROP",
                  "dw0": 1.0000000000000001e-01,
                  "dw_plus": 1.2000000000000000e+00,
                  "dw_minus": 5.0000000000000000e-01,
                  "dw_min": 1.1920928955078125e-07,
                  "dw_max": 50.0,
                  "term_criteria": {
                    "epsilon": 1.0000000000000000e-02,
                    "iterations": 1000
                  }
                },
                "input_scale": [
                  1.8602754997972492e-02,
                  -1.7277945584328973e+00,
                  1.8602754997972492e-02,
                  -1.7277945584328973e+00,
                  1.8602754997972492e-02,
                  -1.7277945584328973e+00,
                  1.9410768274140192e-02,
                  -1.7480818492546997e+00,
                  1.9410768274140192e-02,
                  -1.7480818492546997e+00,
                  1.9410768274140192e-02,
                  -1.7480818492546997e+00,
                  2.0200620858052163e-02,
                  -1.8101195941171018e+00,
                  2.0200620858052163e-02,
                  -1.8101195941171018e+00,
                  2.0200620858052163e-02,
                  -1.8101195941171018e+00,
                  2.2716616629172588e-02,
                  -2.0301234482675956e+00,
                  2.2716616629172588e-02,
                  -2.0301234482675956e+00,
                  2.2716616629172588e-02,
                  -2.0301234482675956e+00,
                  3.0255710602619060e-02,
                  -2.7321474890934123e+00,
                  3.0255710602619060e-02,
                  -2.7321474890934123e+00,
                  3.0255710602619060e-02,
                  -2.7321474890934123e+00
                ],
                "output_scale": [
                  1.0,
                  0.0,
                  1.0,
                  0.0
                ],
                "inv_output_scale": [
                  1.0,
                  0.0,
                  1.0,
                  0.0
                ],
                "weights": [
                  [
                    -1.9138469579240949e+00,
                    9.8333996777568289e-01,
                    -7.7377525737073083e-01,
                    1.5071364052544840e+00,
                    -1.4713764288277165e+00,
                    1.0932739053413680e+00,
                    -1.6541430131121728e+00,
                    1.2172829986087443e+00,
                    -1.5581561255440179e+00,
                    2.1221083073238187e+00,
                    -1.3361747322494180e+00,
                    9.3730356797592140e-01,
                    5.8133701101813068e-02,
                    4.7574208652999928e-01,
                    -1.2209652714356023e+00,
                    2.9261954385375460e-03,
                    -1.2870662505886055e+00,
                    1.4343863178588032e+00,
                    4.4326411475581695e-01,
                    -1.1903623667660965e+00,
                    5.0391013519660088e-01,
                    -1.1105726191439040e+00,
                    -1.6504817697318613e-01,
                    -1.2010999031752472e+00,
                    1.7468581036745772e+00,
                    2.2062315665891946e-01,
                    1.8312099343916977e+00,
                    -1.3653818682809973e+00,
                    1.9764530684012012e+00,
                    -1.3534990336052306e+00,
                    1.3845239286922553e+00,
                    -1.1781667089068539e+00
                  ]
                ]
              }
            }
          },
          "requestProbabilities": false
        },
        {
          "type": "op.core.convert",
          "pixelType": "UINT8"
        }
      ]
    }
  }
}