{
  "pixel_classifier_type": "OpenCVPixelClassifier",
  "metadata": {
    "inputPadding": 0,
    "inputResolution": {
      "pixelWidth": {
        "value": 1.0,
        "unit": "px"
      },
      "pixelHeight": {
        "value": 1.0,
        "unit": "px"
      },
      "zSpacing": {
        "value": 1.0,
        "unit": "z-slice"
      },
      "timeUnit": "SECONDS",
      "timepoints": []
    },
    "inputWidth": 512,
    "inputHeight": 512,
    "inputNumChannels": 3,
    "outputType": "CLASSIFICATION",
    "outputChannels": [
      {
        "name": "Background",
        "color": -7662170
      },
      {
        "name": "Gel Band",
        "color": -6067699
      }
    ],
    "classificationLabels": {
      "0": {
        "name": "Background",
        "colorRGB": -7662170
      },
      "1": {
        "name": "Gel Band",
        "colorRGB": -6067699
      }
    }
  },
  "op": {
    "type": "data.op.channels",
    "colorTransforms": [
      {
        "channelName": "Red"
      },
      {
        "channelName": "Green"
      },
      {
        "channelName": "Blue"
      }
    ],
    "op": {
      "type": "op.core.sequential",
      "ops": [
        {
          "type": "op.core.sequential",
          "ops": [
            {
              "type": "op.core.split-merge",
              "ops": [
                {
                  "type": "op.filters.multiscale",
                  "features": [
                    "GAUSSIAN"
                  ],
                  "sigmaX": 0.5,
                  "sigmaY": 0.5
                },
                {
                  "type": "op.filters.multiscale",
                  "features": [
                    "GAUSSIAN"
                  ],
                  "sigmaX": 1.0,
                  "sigmaY": 1.0
                },
                {
                  "type": "op.filters.multiscale",
                  "features": [
                    "GAUSSIAN"
                  ],
                  "sigmaX": 2.0,
                  "sigmaY": 2.0
                },
                {
                  "type": "op.filters.multiscale",
                  "features": [
                    "GAUSSIAN"
                  ],
                  "sigmaX": 4.0,
                  "sigmaY": 4.0
                },
                {
                  "type": "op.filters.multiscale",
                  "features": [
                    "GAUSSIAN"
                  ],
                  "sigmaX": 8.0,
                  "sigmaY": 8.0
                }
              ]
            },
            {
              "type": "op.ml.feature-preprocessor",
              "preprocessor": {
                "normalizer": {
                  "offsets": [
                    0.0,
                    0.0,
                    0.0,
                    0.0,
                    0.0,
                    0.0,
                    0.0,
                    0.0,
                    0.0,
                    0.0,
                    0.0,
                    0.0,
                    0.0,
                    0.0,
                    0.0
                  ],
                  "scales": [
                    1.0,
                    1.0,
                    1.0,
                    1.0,
                    1.0,
                    1.0,
                    1.0,
                    1.0,
                    1.0,
                    1.0,
                    1.0,
                    1.0,
                    1.0,
                    1.0,
                    1.0
                  ],
                  "missingValue": 0.0
                },
                "inputLength": 15,
                "outputLength": 15
              }
            }
          ]
        },
        {
          "type": "op.ml.opencv-statmodel",
          "model": {
            "class": "ANN_MLP",
            "statmodel": {
              "opencv_ml_ann_mlp": {
                "format": 3,
                "layer_sizes": [
                  15,
                  2
                ],
                "activation_function": "SIGMOID_SYM",
                "f_param1": 1.0,
                "f_param2": 1.0,
                "min_val": -9.4999999999999996e-01,
                "max_val": 9.4999999999999996e-01,
                "min_val1": -9.7999999999999998e-01,
                "max_val1": 9.7999999999999998e-01,
                "training_params": {
                  "train_method": "RPROP",
                  "dw0": 1.0000000000000001e-01,
                  "dw_plus": 1.2000000000000000e+00,
                  "dw_minus": 5.0000000000000000e-01,
                  "dw_min": 1.1920928955078125e-07,
                  "dw_max": 50.0,
                  "term_criteria": {
                    "epsilon": 1.0000000000000000e-02,
                    "iterations": 1000
                  }
                },
                "input_scale": [
                  1.8367000927494950e-02,
                  -1.6982517680560261e+00,
                  1.8367000927494950e-02,
                  -1.6982517680560261e+00,
                  1.8367000927494950e-02,
                  -1.6982517680560261e+00,
                  1.9162655382463215e-02,
                  -1.7182363038575064e+00,
                  1.9162655382463215e-02,
                  -1.7182363038575064e+00,
                  1.9162655382463215e-02,
                  -1.7182363038575064e+00,
                  1.9935916801488332e-02,
                  -1.7795490284767224e+00,
                  1.9935916801488332e-02,
                  -1.7795490284767224e+00,
                  1.9935916801488332e-02,
                  -1.7795490284767224e+00,
                  2.2403879346435718e-02,
                  -1.9978258244287355e+00,
                  2.2403879346435718e-02,
                  -1.9978258244287355e+00,
                  2.2403879346435718e-02,
                  -1.9978258244287355e+00,
                  2.9834077483410684e-02,
                  -2.6958824312268170e+00,
                  2.9834077483410684e-02,
                  -2.6958824312268170e+00,
                  2.9834077483410684e-02,
                  -2.6958824312268170e+00
                ],
                "output_scale": [
                  1.0,
                  0.0,
                  1.0,
                  0.0
                ],
                "inv_output_scale": [
                  1.0,
                  0.0,
                  1.0,
                  0.0
                ],
                "weights": [
                  [
                    -1.5836192459240948e+00,
                    3.1696631198524825e+00,
                    -4.4354754537073077e-01,
                    3.6934595573312832e+00,
                    -1.1411487168277168e+00,
                    3.2795970574181679e+00,
                    -1.6003953011121730e+00,
                    6.8528018260874435e-01,
                    -1.5044084135440181e+00,
                    1.5901054913238186e+00,
                    -1.2824270202494181e+00,
                    4.0530075197592164e-01,
                    1.1188141310181306e-01,
                    3.8869235852999928e-01,
                    -1.1672175594356025e+00,
                    -8.4123532561462502e-02,
                    -1.2333185385886056e+00,
                    1.3473365898588037e+00,
                    7.7927025875581701e-01,
                    -9.5387243396609656e-01,
                    8.3991627919660095e-01,
                    -8.7408268634390418e-01,
                    1.7095796702681379e-01,
                    -9.6460997037524721e-01,
                    1.2839111443145772e+00,
                    -4.0371026593308029e-01,
                    1.3682629750316977e+00,
                    -1.9897152908729969e+00,
                    1.5135061090412012e+00,
                    -1.9778324561972302e+00,
                    1.3845239286922553e+00,
                    -1.5454427409068541e+00
                  ]
                ]
              }
            }
          },
          "requestProbabilities": false
        },
        {
          "type": "op.core.convert",
          "pixelType": "UINT8"
        }
      ]
    }
  }
}