{
  "pixel_classifier_type": "OpenCVPixelClassifier",
  "metadata": {
    "inputPadding": 0,
    "inputResolution": {
      "pixelWidth": {
        "value": 1.0,
        "unit": "px"
      },
      "pixelHeight": {
        "value": 1.0,
        "unit": "px"
      },
      "zSpacing": {
        "value": 1.0,
        "unit": "z-slice"
      },
      "timeUnit": "SECONDS",
      "timepoints": []
    },
    "inputWidth": 512,
    "inputHeight": 512,
    "inputNumChannels": 3,
    "outputType": "CLASSIFICATION",
    "outputChannels": [
      {
        "name": "Background",
        "color": -7662170
      },
      {
        "name": "Gel Band",
        "color": -6067699
      }
    ],
    "classificationLabels": {
      "0": {
        "name": "Background",
        "colorRGB": -7662170
      },
      "1": {
        "name": "Gel Band",
        "colorRGB": -6067699
      }
    }
  },
  "op": {
    "type": "data.op.channels",
    "colorTransforms": [
      {
        "channelName": "Red"
      },
      {
        "channelName": "Green"
      },
      {
        "channelName": "Blue"
      }
    ],
    "op": {
      "type": "op.core.sequential",
      "ops": [
        {
          "type": "op.core.sequential",
          "ops": [
            {
              "type": "op.core.split-merge",
              "ops": [
                {
                  "type": "op.filters.multiscale",
                  "features": [
                    "GAUSSIAN"
                  ],
                  "sigmaX": 0.5,
                  "sigmaY": 0.5
                },
                {
                  "type": "op.filters.multiscale",
                  "features": [
                    "GAUSSIAN"
                  ],
                  "sigmaX": 1.0,
                  "sigmaY": 1.0
                },
                {
                  "type": "op.filters.multiscale",
                  "features": [
                    "GAUSSIAN"
                  ],
                  "sigmaX": 2.0,
                  "sigmaY": 2.0
                },
                {
                  "type": "op.filters.multiscale",
                  "features": [
                    "GAUSSIAN"
                  ],
                  "sigmaX": 4.0,
                  "sigmaY": 4.0
                },
                {
                  "type": "op.filters.multiscale",
                  "features": [
                    "GAUSSIAN"
                  ],
                  "sigmaX": 8.0,
                  "sigmaY": 8.0
                }
              ]
            },
            {
              "type": "op.ml.feature-preprocessor",
              "preprocessor": {
                "normalizer": {
                  "offsets": [
                    0.0,
                    0.0,
                    0.0,
                    0.0,
                    0.0,
                    0.0,
                    0.0,
                    0.0,
                    0.0,
                    0.0,
                    0.0,
                    0.0,
                    0.0,
                    0.0,
                    0.0
                  ],
                  "scales": [
                    1.0,
                    1.0,
                    1.0,
                    1.0,
                    1.0,
                    1.0,
                    1.0,
                    1.0,
                    1.0,
                    1.0,
                    1.0,
                    1.0,
                    1.0,
                    1.0,
                    1.0
                  ],
                  "missingValue": 0.0
                },
                "inputLength": 15,
                "outputLength": 15
              }
            }
          ]
        },
        {
          "type": "op.ml.opencv-statmodel",
          "model": {
            "class": "ANN_MLP",
            "statmodel": {
              "opencv_ml_ann_mlp": {
                "format": 3,
                "layer_sizes": [
                  15,
                  2
                ],
                "activation_function": "SIGMOID_SYM",
                "f_param1": 1.0,
                "f_param2": 1.0,
                "min_val": -9.4999999999999996e-01,
                "max_val": 9.4999999999999996e-01,
                "min_val1": -9.7999999999999998e-01,
                "max_val1": 9.7999999999999998e-01,
                "training_params": {
                  "train_method": "RPROP",
                  "dw0": 1.0000000000000001e-01,
                  "dw_plus": 1.2000000000000000e+00,
                  "dw_minus": 5.0000000000000000e-01,
                  "dw_min": 1.1920928955078125e-07,
                  "dw_max": 50.0,
                  "term_criteria": {
                    "epsilon": 1.0000000000000000e-02,
                    "iterations": 1000
                  }
                },
                "input_scale": [
                  1.4086456960932714e-02,
                  -1.6300827913864078e+00,
                  1.4086456960932714e-02,
                  -1.6300827913864078e+00,
                  1.4086456960932714e-02,
                  -1.6300827913864078e+00,
                  1.4646848476881144e-02,
                  -1.6442497642694878e+00,
                  1.4646848476881144e-02,
                  -1.6442497642694878e+00,
                  1.4646848476881144e-02,
                  -1.6442497642694878e+00,
                  1.5094835554743030e-02,
                  -1.6880323878196841e+00,
                  1.5094835554743030e-02,
                  -1.6880323878196841e+00,
                  1.5094835554743030e-02,
                  -1.6880323878196841e+00,
                  1.6625551114521873e-02,
                  -1.8498229277595528e+00,
                  1.6625551114521873e-02,
                  -1.8498229277595528e+00,
                  1.6625551114521873e-02,
                  -1.8498229277595528e+00,
                  2.2231183686894033e-02,
                  -2.4633663496173823e+00,
                  2.2231183686894033e-02,
                  -2.4633663496173823e+00,
                  2.2231183686894033e-02,
                  -2.4633663496173823e+00
                ],
                "output_scale": [
                  1.0,
                  0.0,
                  1.0,
                  0.0
                ],
                "inv_output_scale": [
                  1.0,
                  0.0,
                  1.0,
                  0.0
                ],
                "weights": [
                  [
                    -1.2134344139240949e+00,
                    -1.6301120224316845e-02,
                    -7.3362713370730831e-02,
                    5.0749531725448394e-01,
                    -7.7096388482771705e-01,
                    9.3632817341368302e-02,
                    -1.2302104691121731e+00,
                    2.1764191060874438e-01,
                    -1.1342235815440180e+00,
                    1.1224672193238185e+00,
                    -9.1224218824941805e-01,
                    -6.2337520024078323e-02,
                    6.7406624510181301e-01,
                    2.5283008652999928e-01,
                    -6.0503272743560255e-01,
                    -2.1998580456146247e-01,
                    -6.7113370658860549e-01,
                    1.2114743178588034e+00,
                    1.3074366587558166e+00,
                    -6.1814276996609674e-01,
                    1.3680826791966005e+00,
                    -5.3835302234390414e-01,
                    6.9912436702681380e-01,
                    -6.2888030637524739e-01,
                    3.0737493695457740e-01,
                    1.0693227534589191e+00,
                    3.9172676767169801e-01,
                    -5.1668227148099743e-01,
                    5.3696990168120140e-01,
                    -5.0479943680523076e-01,
                    9.5454223269225547e-01,
                    -7.1533918890685411e-01
                  ]
                ]
              }
            }
          },
          "requestProbabilities": false
        },
        {
          "type": "op.core.convert",
          "pixelType": "UINT8"
        }
      ]
    }
  }
}